tree
version=v4
num_class=1
num_tree_per_iteration=1
label_index=0
max_feature_idx=151
objective=binary sigmoid:1
feature_names=Column_0 Column_1 Column_2 Column_3 Column_4 Column_5 Column_6 Column_7 Column_8 Column_9 Column_10 Column_11 Column_12 Column_13 Column_14 Column_15 Column_16 Column_17 Column_18 Column_19 Column_20 Column_21 Column_22 Column_23 Column_24 Column_25 Column_26 Column_27 Column_28 Column_29 Column_30 Column_31 Column_32 Column_33 Column_34 Column_35 Column_36 Column_37 Column_38 Column_39 Column_40 Column_41 Column_42 Column_43 Column_44 Column_45 Column_46 Column_47 Column_48 Column_49 Column_50 Column_51 Column_52 Column_53 Column_54 Column_55 Column_56 Column_57 Column_58 Column_59 Column_60 Column_61 Column_62 Column_63 Column_64 Column_65 Column_66 Column_67 Column_68 Column_69 Column_70 Column_71 Column_72 Column_73 Column_74 Column_75 Column_76 Column_77 Column_78 Column_79 Column_80 Column_81 Column_82 Column_83 Column_84 Column_85 Column_86 Column_87 Column_88 Column_89 Column_90 Column_91 Column_92 Column_93 Column_94 Column_95 Column_96 Column_97 Column_98 Column_99 Column_100 Column_101 Column_102 Column_103 Column_104 Column_105 Column_106 Column_107 Column_108 Column_109 Column_110 Column_111 Column_112 Column_113 Column_114 Column_115 Column_116 Column_117 Column_118 Column_119 Column_120 Column_121 Column_122 Column_123 Column_124 Column_125 Column_126 Column_127 Column_128 Column_129 Column_130 Column_131 Column_132 Column_133 Column_134 Column_135 Column_136 Column_137 Column_138 Column_139 Column_140 Column_141 Column_142 Column_143 Column_144 Column_145 Column_146 Column_147 Column_148 Column_149 Column_150 Column_151
feature_infos=[-1.2335430043405333:2.7527964980664636] [-1.2517990254606537:2.7883119816709234] [-1.2407040930878641:2.654294674504428] [-1.2844407758976495:2.7114816343376038] [-1.2172204046207644:2.551535438196681] [-1.2089036009081788:2.535627135187899] [-1.016650216406455:2.2392316657050841] [-1.0354580439311498:2.3732025949670628] [-0.97480842475287743:1.8897645272426948] [-1.0678685660632146:2.301497394200394] [0:1] [0:1] [-4.9003476973138049:4.6031177990103025] [-4.899257746226926:5.4756240548169943] [-4.5397790285903588:4.7182358208721471] [-1.3355109607412032:1.4315785136015036] [-1.5975317622028682:1.6151750018776763] [-1.6979002026327468:1.7262994891511791] [-5.2953646702116437:5.4299831115055035] [-5.8606155677403784:6.5253600171405468] [-3.2142218655577843:4.3420074745364312] [0:1] [-5.1329505018929282:6.1106882046735933] [-6.2647148735520046:5.7892854862858476] [-4.4021764402371026:5.2434469296312365] [-4.7920202618951562:5.6937823607488207] [-4.7751211285145514:5.095156220993851] [-0.87316193139391218:1.0238269523301926] [-0.81189597257186386:0.92378346826786639] [-0.87316193110573936:1.023826952162699] [-1.1311493636071777:2.3978750697496971] [-1.2371472892383379:2.6637496585778782] [-1.204617967160645:2.5476081953909473] [-1.2249942448149405:1.642673357549679] [-0.73102031099229114:6.4371864353192985] [-1.0195239060622885:3.7434486342523026] [-1.0753121482978021:3.6356277526414953] [-0.83837134130452085:3.33534400136694] [-0.70843667002335442:2.3291769808219405] [-0.98814090515313546:8.1388563755417387] [-0.98034903950156338:4.1215835075229226] [-0.72967242904192631:6.6059887506874535] [-0.70815284424646707:8.2019654759003693] [-1.7715897521838395:2.338780415574683] [-1174.3227537244122:301.27146367397472] [-1.2607869975898427:2.6141517541298613] [-4.6284634108161224:4.3380223080621878] [-1.1470004401265101:1.1187845084294608] [-0.46848079925295399:2.0631173661460283] [-0.76410301100418621:1.9843912305622211] [0:1] none [0:1] [-1.1454696641243234:2.3566918851960357] [-2.1126801073542896:2.8095575089792195] none [0:1] [-1.1111810760741858:2.1296008816141891] [-1.9855288810640153:2.5612952589026809] none [0:1] [-1.4338972629463163:2.4765447109672061] [-2.0367892828984098:2.751109104750928] none [0:1] [-1.0706859242630773:2.1716041139676241] [-2.0076281806052938:2.510261101115284] none [-4.6412141140691787:5.1821115111999783] [-6.274183277546836:4.0533832995224524] [0:1] [0:1] none [0:1] none [-0.5:0.5] [-1.2015561405058572:2.539720156067633] [-1.2254344244459088:2.5094034629612452] [-1.0677067738398673:2.2756137265232907] [-1.1046711153479452:2.4709564664759958] [-0.98664248774045238:2.2039484525649318] [-1.0086885664356355:2.298817962261186] [-1.0128557777933804:1.968808111224404] [-1.0409844850043672:2.1762831610360918] [-0.81386682255408138:1.2180094404755633] [-0.77110433709706638:1.5237923419079853] [0:1] [0:1] [-3.4516129230181813:4.8846141247667765] [-3.4087532853792699:5.562610842657044] [-4.2995636754542108:5.6224438593824182] [-1.0678480192223305:1.3132121706925859] [-1.3135353173931179:1.7276355044648684] [-1.5319964872471576:2.0509256359157724] [-4.6580384141218891:6.2635738215400529] [-5.2092143822566639:7.0219838695281371] [-4.6933029483687356:4.8592400148520074] [0:1] [-4.3320678111830144:4.761705081636423] [-3.9472769966970582:4.6911556694136936] [-3.4600998044958793:4.7482245111891492] [-4.2618688760134393:7.3539709948358114] [-3.8219297988514338:5.8773986106470986] [-0.79412609894489095:1.0633766993598546] [-0.90119927489775564:1.0185536213190016] [-0.79412609883100971:1.0633766994279623] [-1.1136277376306856:2.4633910141251656] [-1.1002229488360304:2.9099547372188717] [-1.0018314645611637:2.2654199141246592] [-1.1569525138912153:1.4725023312510515] [-0.57272177000805025:6.1590817556215658] [-1.1184656563704856:3.1524147100299089] [-1.1775921464797092:3.0940792108737796] [-0.95686464613487066:3.7813481365155299] [-1.2529919975787764:3.3101081323073709] [-0.7540823578839464:5.4604197291387573] [-1.0455487640068413:4.0880349635338549] [-0.85634468457716972:5.8802453204079184] [-0.74814482206834831:5.7934739738573935] [-1.9687857983971422:2.3109508588469456] [-412.70405727775113:466.3398234409205] [-1.0197840092033954:2.1531169436396826] [-3.2830513216095785:4.9489045237741749] [-1.7178773811412811:1.3642041928029129] [-0.71030000799901194:2.4973257999898695] [-0.84365406831427348:2.5708136020341756] [0:1] none [0:1] [-0.98741362796360432:2.2077537124293585] [-1.7714321782191405:2.2751046527896994] none [0:1] [-1.0639677337685347:1.810556079228258] [-1.5731874467735081:2.3186893318249693] none [0:1] [-0.98664056008592749:2.2604978910863371] [-1.7555777439857676:2.1653924103587512] none [0:1] [-1.0304616604484629:1.8129144204634993] [-1.4705350128770569:2.1674629016897247] none [-3.2319641087360482:4.0152043343156345] [-2.4043007544153454:4.4836453519534283] [0:1] [0:1] none [0:1] none [-0.5:0.5]
tree_sizes=566 573 571 573 571 468 466 471 576 571 467 466 468 468 464 470 464 463 570 465 577 469 465 467 466 574 469 469 467 574 570 468 463 469 470

Tree=0
num_leaves=4
num_cat=0
split_feature=98 102 39
split_gain=63.5074 9.23343 8.85394
threshold=-0.020113309763909907 0.1684508973852504 -0.0080978555923576865
decision_type=2 2 2
left_child=2 -2 -1
right_child=1 -3 -4
leaf_value=-0.032067203517063263 0.077192428746703665 0.13268336464815389 0.027121222303279059
leaf_weight=12.742088064551355 16.48976102471352 14.491002112627028 13.241777792572973
leaf_count=51 66 58 53
internal_value=0.0551423 0.103492 -0.00229827
internal_weight=56.9646 30.9808 25.9839
internal_count=228 124 104
is_linear=0
shrinkage=1


Tree=1
num_leaves=4
num_cat=0
split_feature=126 123 68
split_gain=55.6085 22.5153 3.81737
threshold=1.0000000180025095e-35 -0.1008200043195641 0.28722864642171381
decision_type=2 2 2
left_child=1 -1 -2
right_child=2 -3 -4
leaf_value=0.0087443083670056525 0.078661237683025464 -0.076495314833247063 0.038377100456809532
leaf_weight=13.487913012504579 13.207080245018007 17.744935378432274 12.466171741485594
leaf_count=54 53 71 50
internal_value=0.00504801 -0.0396146 0.0595193
internal_weight=56.9061 31.2328 25.6733
internal_count=228 125 103
is_linear=0
shrinkage=0.05


Tree=2
num_leaves=4
num_cat=0
split_feature=98 123 102
split_gain=52.1145 8.47045 8.28435
threshold=-0.020113309763909907 0.063029703548553126 0.1684508973852504
decision_type=2 2 2
left_child=1 -1 -2
right_child=2 -3 -4
leaf_value=-0.017904117393547522 0.023895121735768014 -0.075723905813604775 0.076598356460377284
leaf_weight=12.989160984754564 16.436717063188556 12.97401152551174 14.367927446961401
leaf_count=52 66 52 58
internal_value=0.00481821 -0.0471687 0.0488071
internal_weight=56.7678 25.9632 30.8046
internal_count=228 104 124
is_linear=0
shrinkage=0.05


Tree=3
num_leaves=4
num_cat=0
split_feature=98 102 39
split_gain=47.2787 7.61846 7.61526
threshold=-0.020113309763909907 0.1684508973852504 -0.0080978555923576865
decision_type=2 2 2
left_child=2 -2 -1
right_child=1 -3 -4
leaf_value=-0.072638484223236918 0.022744366316383043 0.073440178249856256 -0.017698778730606286
leaf_weight=12.673538982868196 16.410642400383953 14.243867158889769 13.226768076419829
leaf_count=51 66 58 53
internal_value=0.00459312 0.0466254 -0.0449502
internal_weight=56.5548 30.6545 25.9003
internal_count=228 124 104
is_linear=0
shrinkage=0.05


Tree=4
num_leaves=4
num_cat=0
split_feature=98 123 102
split_gain=42.9446 7.63962 7.04421
threshold=-0.020113309763909907 0.063029703548553126 0.1684508973852504
decision_type=2 2 2
left_child=1 -1 -2
right_child=2 -3 -4
leaf_value=-0.015122991953561767 0.021653179789668742 -0.070176664527980492 0.070581076460192668
leaf_weight=12.963693946599962 16.38154169917107 12.846826404333113 14.087772905826567
leaf_count=52 66 52 58
internal_value=0.00438346 -0.0428832 0.0445959
internal_weight=56.2798 25.8105 30.4693
internal_count=228 104 124
is_linear=0
shrinkage=0.05


Tree=5
num_leaves=3
num_cat=0
split_feature=98 123
split_gain=36.0413 13.4859
threshold=0.16086763745805485 -0.1008200043195641
decision_type=2 2
left_child=1 -1
right_child=-2 -3
leaf_value=0.00077761723337117436 0.045740027651025875 -0.064160342966756032
leaf_weight=13.929110884666441 23.148044466972351 18.195940852165222
leaf_count=56 95 74
internal_value=-0.00161808 -0.0359337
internal_weight=55.2731 32.1251
internal_count=225 130
is_linear=0
shrinkage=0.05


Tree=6
num_leaves=3
num_cat=0
split_feature=103 125
split_gain=26.5318 10.7783
threshold=0.49158786807558147 0.33341184505621907
decision_type=2 2
left_child=1 -1
right_child=-2 -3
leaf_value=-0.044566019398523664 0.05140209596281417 0.009844492963911735
leaf_weight=24.253461182117462 16.417973160743713 14.275429651141165
leaf_count=99 68 58
internal_value=-0.00153977 -0.0243035
internal_weight=54.9469 38.5289
internal_count=225 157
is_linear=0
shrinkage=0.05


Tree=7
num_leaves=3
num_cat=0
split_feature=126 125
split_gain=31.3892 8.73594
threshold=1.0000000180025095e-35 0.21038910849559159
decision_type=2 2
left_child=1 -1
right_child=-2 -3
leaf_value=-0.055022214874347546 0.04303850425263292 -0.0013032911569782599
leaf_weight=19.011558681726459 22.870222166180611 12.859971627593039
leaf_count=78 95 52
internal_value=-0.00145595 -0.0335752
internal_weight=54.7418 31.8715
internal_count=225 130
is_linear=0
shrinkage=0.05


Tree=8
num_leaves=4
num_cat=0
split_feature=103 66 123
split_gain=23.0618 9.52867 14.5493
threshold=0.49158786807558147 0.049320041883217487 -0.019260875155990242
decision_type=2 2 2
left_child=1 2 -1
right_child=-2 -3 -4
leaf_value=0.029003372781002242 0.048406383445632813 -0.059055573245484251 -0.045532179359680271
leaf_weight=14.024551302194595 16.163037866353989 12.152433484792708 12.072344541549683
leaf_count=57 68 50 50
internal_value=-0.00139259 -0.0226379 -0.00532787
internal_weight=54.4124 38.2493 26.0969
internal_count=225 157 107
is_linear=0
shrinkage=0.05


Tree=9
num_leaves=4
num_cat=0
split_feature=98 103 66
split_gain=27.5266 11.3509 10.2168
threshold=-0.34955765016967644 0.49158786807558147 -0.23841876095840095
decision_type=2 2 2
left_child=-1 2 -2
right_child=1 -3 -4
leaf_value=-0.062428260667128734 0.031221440079908149 0.053204536644814275 -0.032299810148414425
leaf_weight=13.689187452197073 12.24137671291828 15.27258290350437 12.883384376764299
leaf_count=57 50 65 53
internal_value=-0.00132854 0.0193555 -0.00115146
internal_weight=54.0865 40.3973 25.1248
internal_count=225 168 103
is_linear=0
shrinkage=0.05


Tree=10
num_leaves=3
num_cat=0
split_feature=98 125
split_gain=31.845 15.3883
threshold=0.33302400019083661 0.33341184505621907
decision_type=2 2
left_child=1 -1
right_child=-2 -3
leaf_value=-0.060448435025118943 0.044136264214512284 0.0086409976217918776
leaf_weight=20.796804845333099 21.198304995894432 12.895322084426878
leaf_count=87 90 53
internal_value=-0.00365262 -0.0339099
internal_weight=54.8904 33.6921
internal_count=230 140
is_linear=0
shrinkage=0.05


Tree=11
num_leaves=3
num_cat=0
split_feature=99 25
split_gain=29.108 14.5078
threshold=0.19198100436559246 -0.59541272337019402
decision_type=2 2
left_child=1 -1
right_child=-2 -3
leaf_value=0.0097824270644226597 0.041532983112691331 -0.05847806811832184
leaf_weight=12.205933243036268 21.510661214590073 20.734796404838562
leaf_count=51 92 87
internal_value=-0.00349105 -0.0330803
internal_weight=54.4514 32.9407
internal_count=230 138
is_linear=0
shrinkage=0.05


Tree=12
num_leaves=3
num_cat=0
split_feature=98 125
split_gain=27.7302 13.7402
threshold=0.33302400019083661 0.33341184505621907
decision_type=2 2
left_child=1 -1
right_child=-2 -3
leaf_value=-0.057136510119474439 0.041682805857621109 0.0084037586437037196
leaf_weight=20.417168885469437 20.839078351855278 12.869537621736525
leaf_count=87 90 53
internal_value=-0.00332844 -0.0316978
internal_weight=54.1258 33.2867
internal_count=230 140
is_linear=0
shrinkage=0.05


Tree=13
num_leaves=3
num_cat=0
split_feature=98 123
split_gain=25.6025 13.9124
threshold=0.45096309283440678 -0.38422053307269505
decision_type=2 2
left_child=1 -1
right_child=-2 -3
leaf_value=0.012153205920698764 0.047727443035644662 -0.050690452133453828
leaf_weight=14.090452536940573 16.785137474536896 22.773302614688873
leaf_count=58 74 98
internal_value=-0.00318358 -0.0265665
internal_weight=53.6489 36.8638
internal_count=230 156
is_linear=0
shrinkage=0.05


Tree=14
num_leaves=3
num_cat=0
split_feature=99 125
split_gain=24.0537 14.2824
threshold=0.19198100436559246 0.33341184505621907
decision_type=2 2
left_child=1 -1
right_child=-2 -3
leaf_value=-0.056696931882476889 0.038439132722360936 0.01118479079889788
leaf_weight=19.69803312420845 20.957706183195114 12.508944943547247
leaf_count=86 92 52
internal_value=-0.00304178 -0.0302244
internal_weight=53.1647 32.207
internal_count=230 138
is_linear=0
shrinkage=0.05


Tree=15
num_leaves=3
num_cat=0
split_feature=126 123
split_gain=25.0061 7.49545
threshold=1.0000000180025095e-35 -0.1008200043195641
decision_type=2 2
left_child=1 -1
right_child=-2 -3
leaf_value=0.0026619920550752692 0.045292312287692343 -0.04750635887590491
leaf_weight=13.262821763753893 21.993947014212608 16.337629064917564
leaf_count=54 98 74
internal_value=0.00493991 -0.0249262
internal_weight=51.5944 29.6005
internal_count=226 128
is_linear=0
shrinkage=0.05


Tree=16
num_leaves=3
num_cat=0
split_feature=98 22
split_gain=27.2392 9.04556
threshold=-0.2938408270701679 0.31979830236545975
decision_type=2 2
left_child=-1 -2
right_child=1 -3
leaf_value=-0.052598685289254543 0.051565461536488146 0.0014129884002541488
leaf_weight=14.608070999383925 19.13163711130619 17.289940029382706
leaf_count=66 84 76
internal_value=0.00474548 0.0279632
internal_weight=51.0296 36.4216
internal_count=226 160
is_linear=0
shrinkage=0.05


Tree=17
num_leaves=3
num_cat=0
split_feature=98 98
split_gain=24.903 8.51508
threshold=-0.2938408270701679 0.45096309283440678
decision_type=2 2
left_child=-1 -2
right_child=1 -3
leaf_value=-0.050849798884017409 0.0051756284751397407 0.054298597191947712
leaf_weight=14.364642798900602 20.573625549674034 15.717545136809347
leaf_count=66 87 73
internal_value=0.0045383 0.0266787
internal_weight=50.6558 36.2912
internal_count=226 160
is_linear=0
shrinkage=0.05


Tree=18
num_leaves=4
num_cat=0
split_feature=98 124 22
split_gain=22.8727 9.42314 9.21212
threshold=-0.34955765016967644 -0.17094397725804036 0.31979830236545975
decision_type=2 2 2
left_child=-1 -2 -3
right_child=1 2 -4
leaf_value=-0.055821472734618661 0.060352432325613596 0.033543278090930197 -0.025406723679756549
leaf_weight=11.881040498614309 11.776659801602362 14.365398749709131 12.070945814251898
leaf_count=56 53 64 53
internal_value=0.00436265 0.0233022 0.00644373
internal_weight=50.094 38.213 26.4363
internal_count=226 170 117
is_linear=0
shrinkage=0.05


Tree=19
num_leaves=3
num_cat=0
split_feature=98 98
split_gain=21.1143 7.96225
threshold=-0.2938408270701679 0.45096309283440678
decision_type=2 2
left_child=-1 -2
right_child=1 -3
leaf_value=-0.047831038544540988 0.0039368858784203072 0.051857324825706375
leaf_weight=13.883646830916403 20.549192428588867 15.238222658634184
leaf_count=66 87 73
internal_value=0.00417593 0.0245683
internal_weight=49.6711 35.7874
internal_count=226 160
is_linear=0
shrinkage=0.05


Tree=20
num_leaves=4
num_cat=0
split_feature=99 22 68
split_gain=14.6435 5.09069 4.12879
threshold=-1.0000000180025095e-35 0.30246302543454678 -0.1750968946272092
decision_type=2 2 2
left_child=2 -2 -1
right_child=1 -3 -4
leaf_value=-0.010729180172980791 0.045192982810981858 -0.00035360995390316561 -0.053431929267932721
leaf_weight=11.859119176864626 12.558272287249567 11.483482226729391 11.512205421924589
leaf_count=56 58 53 51
internal_value=-0.00391061 0.0233193 -0.0321147
internal_weight=47.4131 24.0418 23.3713
internal_count=218 111 107
is_linear=0
shrinkage=0.05


Tree=21
num_leaves=3
num_cat=0
split_feature=98 105
split_gain=14.5101 8.31885
threshold=-0.32928647743027623 0.49158786814666977
decision_type=2 2
left_child=-1 -2
right_child=1 -3
leaf_value=-0.048332001762202932 -0.0055123843441896372 0.045229865439809926
leaf_weight=13.105569422245024 21.400324866175652 12.722512155771254
leaf_count=64 92 62
internal_value=-0.00373579 0.0133374
internal_weight=47.2284 34.1228
internal_count=218 154
is_linear=0
shrinkage=0.05


Tree=22
num_leaves=3
num_cat=0
split_feature=98 68
split_gain=13.3502 7.90719
threshold=-0.32928647743027623 0.12006902844493267
decision_type=2 2
left_child=-1 -2
right_child=1 -3
leaf_value=-0.046868658242401072 0.033802653250040712 -0.014661259385208625
leaf_weight=12.848730534315107 19.272354379296303 14.633797764778135
leaf_count=64 88 66
internal_value=-0.003587 0.0127571
internal_weight=46.7549 33.9062
internal_count=218 154
is_linear=0
shrinkage=0.05


Tree=23
num_leaves=3
num_cat=0
split_feature=98 103
split_gain=12.2743 7.71217
threshold=-0.32928647743027623 0.49158786807558147
decision_type=2 2
left_child=-1 -2
right_child=1 -3
leaf_value=-0.045462659694723649 -0.0058662652755002535 0.043326510158418353
leaf_weight=12.593438893556593 21.420015349984169 12.440031036734579
leaf_count=64 92 62
internal_value=-0.00343699 0.0121341
internal_weight=46.4535 33.86
internal_count=218 154
is_linear=0
shrinkage=0.05


Tree=24
num_leaves=3
num_cat=0
split_feature=98 69
split_gain=11.2989 7.613
threshold=-0.32928647743027623 -0.18456151583530903
decision_type=2 2
left_child=-1 -2
right_child=1 -3
leaf_value=-0.044108358104388026 0.043158772406553525 -0.0060698293057312369
leaf_weight=12.340665534138678 12.130450725555418 21.515855044126511
leaf_count=64 55 99
internal_value=-0.00330008 0.0116056
internal_weight=45.987 33.6463
internal_count=218 154
is_linear=0
shrinkage=0.05


Tree=25
num_leaves=4
num_cat=0
split_feature=103 13 88
split_gain=15.2637 8.94554 3.49086
threshold=0.49158786807558147 -0.50949592375767272 -0.079174472749570887
decision_type=2 2 2
left_child=1 -1 -3
right_child=-2 2 -4
leaf_value=0.01142362870879509 0.044827399616529255 -0.061547884818509348 -0.020082479874879822
leaf_weight=13.201271891593931 11.867340117692946 10.356225952506064 11.087873473763468
leaf_count=60 60 50 50
internal_value=-0.00375059 -0.0206154 -0.0405326
internal_weight=46.5127 34.6454 21.4441
internal_count=220 160 100
is_linear=0
shrinkage=0.05


Tree=26
num_leaves=3
num_cat=0
split_feature=103 66
split_gain=13.9692 8.49061
threshold=0.49158786807558147 -0.36240946589330103
decision_type=2 2
left_child=1 -1
right_child=-2 -3
leaf_value=0.0087464648022945301 0.043307688167934531 -0.041102857924207231
leaf_weight=14.703200682997702 11.677977710962294 19.742690145969391
leaf_count=68 60 92
internal_value=-0.00359205 -0.0197163
internal_weight=46.1239 34.4459
internal_count=220 160
is_linear=0
shrinkage=0.05


Tree=27
num_leaves=3
num_cat=0
split_feature=105 66
split_gain=12.7704 7.74226
threshold=0.49158786814666977 -0.36240946589330103
decision_type=2 2
left_child=1 -1
right_child=-2 -3
leaf_value=0.0083086504258884537 0.041842547460143299 -0.039351687033022123
leaf_weight=14.709181442856787 11.490870758891104 19.598361328244209
leaf_count=68 60 92
internal_value=-0.00342338 -0.0188075
internal_weight=45.7984 34.3075
internal_count=220 160
is_linear=0
shrinkage=0.05


Tree=28
num_leaves=3
num_cat=0
split_feature=99 12
split_gain=11.8488 8.07256
threshold=0.19198100436559246 -0.38464209340317718
decision_type=2 2
left_child=1 -1
right_child=-2 -3
leaf_value=0.0039147120899787119 0.030917949929795463 -0.048136801013325459
leaf_weight=14.531348273158075 16.129866942763329 14.810464054346083
leaf_count=68 80 72
internal_value=-0.00326234 -0.022263
internal_weight=45.4717 29.3418
internal_count=220 140
is_linear=0
shrinkage=0.05


Tree=29
num_leaves=4
num_cat=0
split_feature=105 25 144
split_gain=11.2324 6.64634 7.17912
threshold=0.49158786814666977 -0.68014811258487817 -0.04977416851607349
decision_type=2 2 2
left_child=1 -1 -3
right_child=-2 2 -4
leaf_value=0.014451928690334889 0.040025631014726039 -0.062152650920045585 -0.0059511315874558575
leaf_weight=10.803131759166716 11.171101391315458 10.85271045565605 12.311931416392328
leaf_count=50 60 54 56
internal_value=-0.0031146 -0.0175249 -0.0326506
internal_weight=45.1389 33.9678 23.1646
internal_count=220 160 110
is_linear=0
shrinkage=0.05


Tree=30
num_leaves=4
num_cat=0
split_feature=98 22 43
split_gain=13.5836 7.20438 2.69705
threshold=0.39204871987794077 -0.43961579922350896 -0.11619533099981617
decision_type=2 2 2
left_child=1 -1 -3
right_child=-2 2 -4
leaf_value=0.016685522472724479 0.037777195437113359 -0.015500477054394871 -0.052351476736038821
leaf_weight=9.6771357506513613 16.27331830561161 10.151464030146602 10.91785433888435
leaf_count=48 84 48 53
internal_value=0.00086951 -0.0185618 -0.0349895
internal_weight=47.0198 30.7465 21.0693
internal_count=233 149 101
is_linear=0
shrinkage=0.05


Tree=31
num_leaves=3
num_cat=0
split_feature=103 19
split_gain=7.33175 9.98732
threshold=-0.35572467674443325 0.37234408380677364
decision_type=2 2
left_child=-1 -2
right_child=1 -3
leaf_value=-0.029581965471258565 0.036118150493123717 -0.019874824901042046
leaf_weight=13.756719321012495 19.835907757282257 13.056476056575773
leaf_count=69 97 67
internal_value=0.000826892 0.0137476
internal_weight=46.6491 32.8924
internal_count=233 164
is_linear=0
shrinkage=0.05


Tree=32
num_leaves=3
num_cat=0
split_feature=98 22
split_gain=12.029 5.82991
threshold=0.33302400019083661 -0.29231564415925798
decision_type=2 2
left_child=1 -1
right_child=-2 -3
leaf_value=0.010259462229312292 0.034870391592637349 -0.035074450045015339
leaf_weight=11.08551722764969 16.604618966579437 18.747258692979813
leaf_count=56 87 90
internal_value=0.0007778 -0.0180839
internal_weight=46.4374 29.8328
internal_count=233 146
is_linear=0
shrinkage=0.05


Tree=33
num_leaves=3
num_cat=0
split_feature=98 39
split_gain=11.0176 6.71316
threshold=0.39204871987794077 -0.0080978555923576865
decision_type=2 2
left_child=1 -1
right_child=-2 -3
leaf_value=-0.042032459392245897 0.034782904887812688 0.0047446709346219279
leaf_weight=13.994253695011141 15.670524999499319 16.424220755696297
leaf_count=70 84 79
internal_value=0.000747592 -0.0166789
internal_weight=46.089 30.4185
internal_count=233 149
is_linear=0
shrinkage=0.05


Tree=34
num_leaves=3
num_cat=0
split_feature=98 39
split_gain=10.0777 6.15741
threshold=0.39204871987794077 -0.0080978555923576865
decision_type=2 2
left_child=1 -1
right_child=-2 -3
leaf_value=-0.040413943379406819 0.033587013930119064 0.0045051163037179978
leaf_weight=13.835083775222303 15.426917046308516 16.437644600868225
leaf_count=70 84 79
internal_value=0.000716929 -0.0159244
internal_weight=45.6996 30.2727
internal_count=233 149
is_linear=0
shrinkage=0.05


end of trees

feature_importances:
Column_98=23
Column_103=7
Column_123=7
Column_22=5
Column_125=5
Column_39=4
Column_66=4
Column_99=4
Column_102=4
Column_68=3
Column_105=3
Column_126=3
Column_25=2
Column_12=1
Column_13=1
Column_19=1
Column_43=1
Column_69=1
Column_88=1
Column_124=1
Column_144=1

parameters:
[boosting: gbdt]
[objective: binary]
[metric: binary_logloss]
[tree_learner: serial]
[device_type: cpu]
[data_sample_strategy: bagging]
[data: ]
[valid: ]
[num_iterations: 2000]
[learning_rate: 0.05]
[num_leaves: 63]
[num_threads: 0]
[seed: 0]
[deterministic: 0]
[force_col_wise: 0]
[force_row_wise: 0]
[histogram_pool_size: -1]
[max_depth: -1]
[min_data_in_leaf: 50]
[min_sum_hessian_in_leaf: 0.001]
[bagging_fraction: 0.8]
[pos_bagging_fraction: 1]
[neg_bagging_fraction: 1]
[bagging_freq: 5]
[bagging_seed: 3]
[bagging_by_query: 0]
[feature_fraction: 0.8]
[feature_fraction_bynode: 1]
[feature_fraction_seed: 2]
[extra_trees: 0]
[extra_seed: 6]
[early_stopping_round: 0]
[early_stopping_min_delta: 0]
[first_metric_only: 0]
[max_delta_step: 0]
[lambda_l1: 0.1]
[lambda_l2: 0.1]
[linear_lambda: 0]
[min_gain_to_split: 0]
[drop_rate: 0.1]
[max_drop: 50]
[skip_drop: 0.5]
[xgboost_dart_mode: 0]
[uniform_drop: 0]
[drop_seed: 4]
[top_rate: 0.2]
[other_rate: 0.1]
[min_data_per_group: 100]
[max_cat_threshold: 32]
[cat_l2: 10]
[cat_smooth: 10]
[max_cat_to_onehot: 4]
[top_k: 20]
[monotone_constraints: ]
[monotone_constraints_method: basic]
[monotone_penalty: 0]
[feature_contri: ]
[forcedsplits_filename: ]
[refit_decay_rate: 0.9]
[cegb_tradeoff: 1]
[cegb_penalty_split: 0]
[cegb_penalty_feature_lazy: ]
[cegb_penalty_feature_coupled: ]
[path_smooth: 0]
[interaction_constraints: ]
[verbosity: -1]
[saved_feature_importance_type: 0]
[use_quantized_grad: 0]
[num_grad_quant_bins: 4]
[quant_train_renew_leaf: 0]
[stochastic_rounding: 1]
[linear_tree: 0]
[max_bin: 255]
[max_bin_by_feature: ]
[min_data_in_bin: 3]
[bin_construct_sample_cnt: 200000]
[data_random_seed: 1]
[is_enable_sparse: 1]
[enable_bundle: 1]
[use_missing: 1]
[zero_as_missing: 0]
[feature_pre_filter: 1]
[pre_partition: 0]
[two_round: 0]
[header: 0]
[label_column: ]
[weight_column: ]
[group_column: ]
[ignore_column: ]
[categorical_feature: ]
[forcedbins_filename: ]
[precise_float_parser: 0]
[parser_config_file: ]
[objective_seed: 5]
[num_class: 1]
[is_unbalance: 0]
[scale_pos_weight: 1]
[sigmoid: 1]
[boost_from_average: 1]
[reg_sqrt: 0]
[alpha: 0.9]
[fair_c: 1]
[poisson_max_delta_step: 0.7]
[tweedie_variance_power: 1.5]
[lambdarank_truncation_level: 30]
[lambdarank_norm: 1]
[label_gain: ]
[lambdarank_position_bias_regularization: 0]
[eval_at: ]
[multi_error_top_k: 1]
[auc_mu_weights: ]
[num_machines: 1]
[local_listen_port: 12400]
[time_out: 120]
[machine_list_filename: ]
[machines: ]
[gpu_platform_id: -1]
[gpu_device_id: -1]
[gpu_use_dp: 0]
[num_gpu: 1]

end of parameters

pandas_categorical:null
